{
  "weights": [
    4.348567733528052,
    1.937331969327995,
    1.0114221006934214,
    -0.40992463644698696,
    -1.070775525248344,
    -2.410822081107061,
    -1.9566565132315372,
    1.985698010309813,
    0.33169989058986943,
    -1.1339198602767713,
    -1.307304860379396,
    0.2690755651189194,
    -0.9150642546583945,
    1.196583981061929,
    -0.08739487542197769,
    0.02681294724025172,
    0.12754967751288898,
    -0.12210077885033101,
    -2.652946215928658,
    -1.0427324580858763,
    0.2950149766297441,
    0.6418616055676883,
    0.18962471788427807,
    -9.63392690148592,
    -0.5370358305473959,
    3.7063743703206704,
    0.8675947159639017,
    -1.6646050331542608,
    -1.355014931466435,
    -2.5559537715337846,
    0.5534085257332765,
    4.1930062861790685,
    1.3098891037271128,
    -0.28479221573931296,
    -0.9253197680021277,
    -3.291095554592972,
    3.1052503521478614,
    -1.7766146439079677,
    -3.385396373587831,
    -0.04463369994783364,
    1.191070714654158,
    -10.463849385522416,
    1.4668936739915135,
    1.7625310584686025,
    -1.130334742356169,
    0.7361497472234625,
    0.8233482239850949,
    -6.9027357925447905
  ],
  "bias": -13.255681417489912,
  "means": [
    0.8224361832843066,
    0.13404867278858792,
    0.5650051616462727,
    1.187689283358881,
    0.6226841217126075,
    0.831874075458244,
    -0.009354258947960926,
    0.10152125292192558,
    -0.29910451061041243,
    0.20333404124205218,
    0.5024385518524637,
    0.1400188526661984,
    0.07811740170411209,
    0.09179200408224522,
    -0.16492994466480215,
    0.28451588507250175,
    0.4494458297373003,
    0.13335664274031267,
    0.02094097878104414,
    0.34655114645723833,
    -0.7700012239343469,
    0.7985936410726238,
    1.5685948650069705,
    0.33858905228439434,
    -0.008084029124710925,
    0.31579725764848837,
    -0.8293318221804115,
    0.8728286786753693,
    1.7021605008557807,
    0.20601568587554428,
    -0.010789498464710548,
    0.2250049413202283,
    -0.584072138325855,
    0.5268145381258664,
    1.1108866764517213,
    0.12063257598355082,
    1.034362399568747,
    0.1298023655875521,
    0.7898982631755476,
    1.415236393982199,
    0.6253381308066381,
    1.1052495708647494,
    0.5087277011810135,
    0.3178400274791361,
    0.06791214495167539,
    1.463397548535975,
    1.3954854035842876,
    0.6652373141434853
  ],
  "stds": [
    0.3468385660676968,
    0.13117454895941066,
    0.3620065060915424,
    0.552545660760925,
    0.553471242094479,
    0.37613130784276694,
    0.34916688213637526,
    0.08779108229232485,
    0.5098776658976115,
    0.33456212066641405,
    0.4195601314855261,
    0.20396847533265947,
    0.3343492713190719,
    0.08389938644758405,
    0.45984959515784957,
    0.3385709382738092,
    0.38625407564596154,
    0.21973917654218172,
    0.33248707336793526,
    0.3278798203983993,
    0.9005319834939858,
    0.8376833144162881,
    1.4344455623642172,
    0.6062758409771664,
    0.11563459971392158,
    0.304714728491013,
    0.9175540163806015,
    0.9489185989631913,
    1.7532203055062259,
    0.44419235223639825,
    0.1363007263073281,
    0.2265194276348209,
    0.6836867218337594,
    0.5676110446048581,
    1.1425293513902393,
    0.4180771441785312,
    0.0207235050234711,
    0.13440937262912112,
    0.20875642899953245,
    0.3819387532410339,
    0.5790385990539273,
    0.08397799144471578,
    0.44750280153952665,
    0.3242721075592385,
    0.08133217532277404,
    1.4091178589143536,
    1.3715391691997105,
    1.209967226588547
  ]
}